digraph Tree {
node [shape=box] ;
0 [label="cyl <= 0.027\nmse = 1.017\nsamples = 278\nvalue = 0.011"] ;
1 [label="wt <= -0.859\nmse = 0.581\nsamples = 149\nvalue = 0.718"] ;
0 -> 1 [labeldistance=2.5, labelangle=45, headlabel="True"] ;
2 [label="hp <= -0.96\nmse = 0.466\nsamples = 55\nvalue = 1.28"] ;
1 -> 2 ;
3 [label="disp <= -1.053\nmse = 0.441\nsamples = 34\nvalue = 1.447"] ;
2 -> 3 ;
4 [label="wt <= -1.423\nmse = 0.293\nsamples = 29\nvalue = 1.278"] ;
3 -> 4 ;
5 [label="mse = 0.0\nsamples = 1\nvalue = 2.509"] ;
4 -> 5 ;
6 [label="disp <= -1.266\nmse = 0.248\nsamples = 28\nvalue = 1.234"] ;
4 -> 6 ;
7 [label="mse = 0.238\nsamples = 11\nvalue = 1.481"] ;
6 -> 7 ;
8 [label="mse = 0.189\nsamples = 17\nvalue = 1.074"] ;
6 -> 8 ;
9 [label="wt <= -0.977\nmse = 0.167\nsamples = 5\nvalue = 2.43"] ;
3 -> 9 ;
10 [label="hp <= -1.036\nmse = 0.071\nsamples = 4\nvalue = 2.595"] ;
9 -> 10 ;
11 [label="mse = 0.0\nsamples = 1\nvalue = 2.214"] ;
10 -> 11 ;
12 [label="mse = 0.03\nsamples = 3\nvalue = 2.722"] ;
10 -> 12 ;
13 [label="mse = -0.0\nsamples = 1\nvalue = 1.766"] ;
9 -> 13 ;
14 [label="disp <= -0.967\nmse = 0.387\nsamples = 21\nvalue = 1.01"] ;
2 -> 14 ;
15 [label="disp <= -1.043\nmse = 0.373\nsamples = 13\nvalue = 1.195"] ;
14 -> 15 ;
16 [label="hp <= -0.921\nmse = 0.167\nsamples = 8\nvalue = 0.911"] ;
15 -> 16 ;
17 [label="mse = 0.046\nsamples = 4\nvalue = 0.591"] ;
16 -> 17 ;
18 [label="mse = 0.082\nsamples = 4\nvalue = 1.231"] ;
16 -> 18 ;
19 [label="wt <= -1.226\nmse = 0.367\nsamples = 5\nvalue = 1.651"] ;
15 -> 19 ;
20 [label="mse = 0.0\nsamples = 1\nvalue = 2.624"] ;
19 -> 20 ;
21 [label="mse = 0.162\nsamples = 4\nvalue = 1.407"] ;
19 -> 21 ;
22 [label="wt <= -1.121\nmse = 0.262\nsamples = 8\nvalue = 0.708"] ;
14 -> 22 ;
23 [label="wt <= -1.239\nmse = 0.009\nsamples = 2\nvalue = 0.03"] ;
22 -> 23 ;
24 [label="mse = 0.0\nsamples = 1\nvalue = -0.066"] ;
23 -> 24 ;
25 [label="mse = 0.0\nsamples = 1\nvalue = 0.126"] ;
23 -> 25 ;
26 [label="hp <= -0.883\nmse = 0.142\nsamples = 6\nvalue = 0.933"] ;
22 -> 26 ;
27 [label="mse = 0.057\nsamples = 3\nvalue = 0.656"] ;
26 -> 27 ;
28 [label="mse = 0.073\nsamples = 3\nvalue = 1.211"] ;
26 -> 28 ;
29 [label="disp <= -1.17\nmse = 0.356\nsamples = 94\nvalue = 0.39"] ;
1 -> 29 ;
30 [label="hp <= -0.979\nmse = 0.111\nsamples = 2\nvalue = 1.894"] ;
29 -> 30 ;
31 [label="mse = 0.0\nsamples = 1\nvalue = 2.227"] ;
30 -> 31 ;
32 [label="mse = 0.0\nsamples = 1\nvalue = 1.561"] ;
30 -> 32 ;
33 [label="disp <= -0.21\nmse = 0.311\nsamples = 92\nvalue = 0.357"] ;
29 -> 33 ;
34 [label="hp <= -1.051\nmse = 0.297\nsamples = 78\nvalue = 0.443"] ;
33 -> 34 ;
35 [label="hp <= -1.137\nmse = 0.036\nsamples = 3\nvalue = -0.514"] ;
34 -> 35 ;
36 [label="mse = 0.004\nsamples = 2\nvalue = -0.642"] ;
35 -> 36 ;
37 [label="mse = 0.0\nsamples = 1\nvalue = -0.258"] ;
35 -> 37 ;
38 [label="disp <= -0.888\nmse = 0.27\nsamples = 75\nvalue = 0.481"] ;
34 -> 38 ;
39 [label="mse = 0.233\nsamples = 16\nvalue = 0.755"] ;
38 -> 39 ;
40 [label="mse = 0.254\nsamples = 59\nvalue = 0.407"] ;
38 -> 40 ;
41 [label="hp <= -0.561\nmse = 0.119\nsamples = 14\nvalue = -0.12"] ;
33 -> 41 ;
42 [label="wt <= 0.241\nmse = 0.048\nsamples = 6\nvalue = -0.437"] ;
41 -> 42 ;
43 [label="mse = 0.049\nsamples = 5\nvalue = -0.476"] ;
42 -> 43 ;
44 [label="mse = -0.0\nsamples = 1\nvalue = -0.245"] ;
42 -> 44 ;
45 [label="wt <= -0.349\nmse = 0.04\nsamples = 8\nvalue = 0.118"] ;
41 -> 45 ;
46 [label="mse = 0.049\nsamples = 5\nvalue = 0.188"] ;
45 -> 46 ;
47 [label="mse = 0.003\nsamples = 3\nvalue = 0.002"] ;
45 -> 47 ;
48 [label="wt <= 0.922\nmse = 0.275\nsamples = 129\nvalue = -0.806"] ;
0 -> 48 [labeldistance=2.5, labelangle=-45, headlabel="False"] ;
49 [label="disp <= 0.157\nmse = 0.235\nsamples = 71\nvalue = -0.499"] ;
48 -> 49 ;
50 [label="hp <= 0.639\nmse = 0.325\nsamples = 25\nvalue = -0.191"] ;
49 -> 50 ;
51 [label="wt <= 0.595\nmse = 0.157\nsamples = 24\nvalue = -0.276"] ;
50 -> 51 ;
52 [label="wt <= 0.175\nmse = 0.068\nsamples = 23\nvalue = -0.339"] ;
51 -> 52 ;
53 [label="mse = 0.05\nsamples = 19\nvalue = -0.394"] ;
52 -> 53 ;
54 [label="mse = 0.07\nsamples = 4\nvalue = -0.079"] ;
52 -> 54 ;
55 [label="mse = 0.0\nsamples = 1\nvalue = 1.177"] ;
51 -> 55 ;
56 [label="mse = -0.0\nsamples = 1\nvalue = 1.856"] ;
50 -> 56 ;
57 [label="hp <= 1.35\nmse = 0.106\nsamples = 46\nvalue = -0.667"] ;
49 -> 57 ;
58 [label="hp <= 0.457\nmse = 0.083\nsamples = 45\nvalue = -0.69"] ;
57 -> 58 ;
59 [label="hp <= -0.115\nmse = 0.051\nsamples = 21\nvalue = -0.559"] ;
58 -> 59 ;
60 [label="mse = 0.003\nsamples = 2\nvalue = -0.886"] ;
59 -> 60 ;
61 [label="mse = 0.043\nsamples = 19\nvalue = -0.525"] ;
59 -> 61 ;
62 [label="disp <= 0.766\nmse = 0.082\nsamples = 24\nvalue = -0.805"] ;
58 -> 62 ;
63 [label="mse = 0.092\nsamples = 17\nvalue = -0.741"] ;
62 -> 63 ;
64 [label="mse = 0.025\nsamples = 7\nvalue = -0.959"] ;
62 -> 64 ;
65 [label="mse = -0.0\nsamples = 1\nvalue = 0.395"] ;
57 -> 65 ;
66 [label="disp <= 1.652\nmse = 0.068\nsamples = 58\nvalue = -1.182"] ;
48 -> 66 ;
67 [label="disp <= 0.631\nmse = 0.047\nsamples = 35\nvalue = -1.075"] ;
66 -> 67 ;
68 [label="disp <= 0.522\nmse = 0.037\nsamples = 5\nvalue = -0.811"] ;
67 -> 68 ;
69 [label="mse = 0.0\nsamples = 1\nvalue = -1.091"] ;
68 -> 69 ;
70 [label="hp <= 1.067\nmse = 0.021\nsamples = 4\nvalue = -0.742"] ;
68 -> 70 ;
71 [label="mse = 0.012\nsamples = 2\nvalue = -0.854"] ;
70 -> 71 ;
72 [label="mse = 0.006\nsamples = 2\nvalue = -0.63"] ;
70 -> 72 ;
73 [label="disp <= 1.31\nmse = 0.036\nsamples = 30\nvalue = -1.119"] ;
67 -> 73 ;
74 [label="hp <= 1.129\nmse = 0.034\nsamples = 13\nvalue = -1.209"] ;
73 -> 74 ;
75 [label="mse = 0.026\nsamples = 3\nvalue = -1.048"] ;
74 -> 75 ;
76 [label="mse = 0.026\nsamples = 10\nvalue = -1.257"] ;
74 -> 76 ;
77 [label="disp <= 1.313\nmse = 0.026\nsamples = 17\nvalue = -1.05"] ;
73 -> 77 ;
78 [label="mse = 0.0\nsamples = 1\nvalue = -0.77"] ;
77 -> 78 ;
79 [label="mse = 0.023\nsamples = 16\nvalue = -1.068"] ;
77 -> 79 ;
80 [label="wt <= 2.284\nmse = 0.057\nsamples = 23\nvalue = -1.344"] ;
66 -> 80 ;
81 [label="disp <= 2.025\nmse = 0.036\nsamples = 18\nvalue = -1.279"] ;
80 -> 81 ;
82 [label="disp <= 1.67\nmse = 0.032\nsamples = 12\nvalue = -1.203"] ;
81 -> 82 ;
83 [label="mse = 0.0\nsamples = 1\nvalue = -0.899"] ;
82 -> 83 ;
84 [label="mse = 0.025\nsamples = 11\nvalue = -1.231"] ;
82 -> 84 ;
85 [label="disp <= 2.194\nmse = 0.009\nsamples = 6\nvalue = -1.432"] ;
81 -> 85 ;
86 [label="mse = 0.0\nsamples = 2\nvalue = -1.347"] ;
85 -> 86 ;
87 [label="mse = 0.008\nsamples = 4\nvalue = -1.475"] ;
85 -> 87 ;
88 [label="hp <= 1.984\nmse = 0.062\nsamples = 5\nvalue = -1.578"] ;
80 -> 88 ;
89 [label="hp <= 1.076\nmse = 0.004\nsamples = 3\nvalue = -1.774"] ;
88 -> 89 ;
90 [label="mse = 0.0\nsamples = 1\nvalue = -1.859"] ;
89 -> 90 ;
91 [label="mse = 0.0\nsamples = 2\nvalue = -1.731"] ;
89 -> 91 ;
92 [label="wt <= 3.031\nmse = 0.004\nsamples = 2\nvalue = -1.283"] ;
88 -> 92 ;
93 [label="mse = 0.0\nsamples = 1\nvalue = -1.347"] ;
92 -> 93 ;
94 [label="mse = 0.0\nsamples = 1\nvalue = -1.219"] ;
92 -> 94 ;
}